<?xml version="1.0"?>
<opencv_storage>
<cascade>
  <stageType>BOOST</stageType>
  <featureType>HAAR</featureType>
  <height>20</height>
  <width>20</width>
  <stageParams>
    <boostType>GAB</boostType>
    <minHitRate>9.9500000476837158e-01</minHitRate>
    <maxFalseAlarm>5.0000000000000000e-01</maxFalseAlarm>
    <weightTrimRate>9.4999999999999996e-01</weightTrimRate>
    <maxDepth>1</maxDepth>
    <maxWeakCount>100</maxWeakCount></stageParams>
  <featureParams>
    <maxCatCount>0</maxCatCount>
    <featSize>1</featSize>
    <mode>BASIC</mode></featureParams>
  <stageNum>4</stageNum>
  <stages>
    <!-- stage 0 -->
    <_>
      <maxWeakCount>2</maxWeakCount>
      <stageThreshold>-1.1546341329813004e-01</stageThreshold>
      <weakClassifiers>
        <_>
          <internalNodes>
            0 -1 3 5.3544655442237854e-02</internalNodes>
          <leafValues>
            -9.0898483991622925e-01 9.1101467609405518e-01</leafValues></_>
        <_>
          <internalNodes>
            0 -1 1 1.4793567359447479e-01</internalNodes>
          <leafValues>
            -9.2565566301345825e-01 7.9352140426635742e-01</leafValues></_></weakClassifiers></_>
    <!-- stage 1 -->
    <_>
      <maxWeakCount>3</maxWeakCount>
      <stageThreshold>-8.7297147512435913e-01</stageThreshold>
      <weakClassifiers>
        <_>
          <internalNodes>
            0 -1 2 2.6586824655532837e-01</internalNodes>
          <leafValues>
            -7.5666278600692749e-01 8.4540009498596191e-01</leafValues></_>
        <_>
          <internalNodes>
            0 -1 12 -2.6265367865562439e-02</internalNodes>
          <leafValues>
            7.4593549966812134e-01 -8.2061123847961426e-01</leafValues></_>
        <_>
          <internalNodes>
            0 -1 4 1.9246112555265427e-02</internalNodes>
          <leafValues>
            -7.0886528491973877e-01 7.0430254936218262e-01</leafValues></_></weakClassifiers></_>
    <!-- stage 2 -->
    <_>
      <maxWeakCount>4</maxWeakCount>
      <stageThreshold>-5.8971536159515381e-01</stageThreshold>
      <weakClassifiers>
        <_>
          <internalNodes>
            0 -1 0 1.0725562274456024e-01</internalNodes>
          <leafValues>
            -7.4742269515991211e-01 7.6923078298568726e-01</leafValues></_>
        <_>
          <internalNodes>
            0 -1 5 -2.1330956369638443e-02</internalNodes>
          <leafValues>
            7.1039366722106934e-01 -7.0037227869033813e-01</leafValues></_>
        <_>
          <internalNodes>
            0 -1 10 9.9502261728048325e-03</internalNodes>
          <leafValues>
            -9.3967318534851074e-01 5.1067602634429932e-01</leafValues></_>
        <_>
          <internalNodes>
            0 -1 9 -4.0474717388860881e-04</internalNodes>
          <leafValues>
            -9.7440725564956665e-01 3.4740355610847473e-01</leafValues></_></weakClassifiers></_>
    <!-- stage 3 -->
    <_>
      <maxWeakCount>5</maxWeakCount>
      <stageThreshold>-3.5416761040687561e-01</stageThreshold>
      <weakClassifiers>
        <_>
          <internalNodes>
            0 -1 2 3.2894992828369141e-01</internalNodes>
          <leafValues>
            -5.3380423784255981e-01 8.3616149425506592e-01</leafValues></_>
        <_>
          <internalNodes>
            0 -1 11 -1.3817699626088142e-02</internalNodes>
          <leafValues>
            5.8079952001571655e-01 -7.6102179288864136e-01</leafValues></_>
        <_>
          <internalNodes>
            0 -1 7 2.1250697318464518e-03</internalNodes>
          <leafValues>
            3.9285582304000854e-01 -8.9209991693496704e-01</leafValues></_>
        <_>
          <internalNodes>
            0 -1 6 -1.7380921635776758e-03</internalNodes>
          <leafValues>
            -9.8289328813552856e-01 2.8207835555076599e-01</leafValues></_>
        <_>
          <internalNodes>
            0 -1 8 1.0937180370092392e-02</internalNodes>
          <leafValues>
            -9.4935774803161621e-01 2.6572421193122864e-01</leafValues></_></weakClassifiers></_></stages>
  <features>
    <_>
      <rects>
        <_>
          0 5 18 4 -1.</_>
        <_>
          6 5 6 4 3.</_></rects>
      <tilted>0</tilted></_>
    <_>
      <rects>
        <_>
          3 5 15 11 -1.</_>
        <_>
          8 5 5 11 3.</_></rects>
      <tilted>0</tilted></_>
    <_>
      <rects>
        <_>
          4 1 11 18 -1.</_>
        <_>
          4 7 11 6 3.</_></rects>
      <tilted>0</tilted></_>
    <_>
      <rects>
        <_>
          4 3 11 6 -1.</_>
        <_>
          4 6 11 3 2.</_></rects>
      <tilted>0</tilted></_>
    <_>
      <rects>
        <_>
          5 3 5 4 -1.</_>
        <_>
          5 5 5 2 2.</_></rects>
      <tilted>0</tilted></_>
    <_>
      <rects>
        <_>
          5 13 9 4 -1.</_>
        <_>
          5 15 9 2 2.</_></rects>
      <tilted>0</tilted></_>
    <_>
      <rects>
        <_>
          6 4 6 10 -1.</_>
        <_>
          9 4 3 10 2.</_></rects>
      <tilted>0</tilted></_>
    <_>
      <rects>
        <_>
          6 9 6 2 -1.</_>
        <_>
          9 9 3 2 2.</_></rects>
      <tilted>0</tilted></_>
    <_>
      <rects>
        <_>
          7 3 2 9 -1.</_>
        <_>
          7 6 2 3 3.</_></rects>
      <tilted>0</tilted></_>
    <_>
      <rects>
        <_>
          9 8 4 5 -1.</_>
        <_>
          11 8 2 5 2.</_></rects>
      <tilted>0</tilted></_>
    <_>
      <rects>
        <_>
          10 4 3 6 -1.</_>
        <_>
          10 6 3 2 3.</_></rects>
      <tilted>0</tilted></_>
    <_>
      <rects>
        <_>
          12 11 6 2 -1.</_>
        <_>
          15 11 3 2 2.</_></rects>
      <tilted>0</tilted></_>
    <_>
      <rects>
        <_>
          13 6 4 7 -1.</_>
        <_>
          15 6 2 7 2.</_></rects>
      <tilted>0</tilted></_></features></cascade>
</opencv_storage>
